0.010545
-0.056898
-0.052915
-0.039377
-0.056601
-0.052156
-0.036618
-0.050010
-0.021222
-0.058543
-0.041282
-0.051838
-0.045539
-0.062285
-0.040352
-0.054099
-0.041928
-0.032018
-0.036912
-0.029835
-0.041526
-0.059109
-0.041852
-0.038140
-0.038472
-0.050548
-0.049649
-0.048590
-0.056973
-0.050089
-0.054046
-0.053844
-0.068243
-0.061724
-0.045292
-0.063097
-0.053414
-0.042238
-0.048994
-0.064541
-0.043971
-0.052910
-0.055159
-0.047070
-0.036453
-0.054888
-0.046297
-0.048122
-0.050538
-0.059657
-0.041399
-0.056661
-0.021651
-0.040930
-0.045390
-0.038696
-0.051682
-0.057163
-0.052981
-0.035745
-0.046987
-0.042611
-0.059140
-0.031440
-0.035579
-0.041955
-0.016808
-0.013585
-0.035345
-0.031314
-0.040219
-0.017105
-0.011746
0.133932
0.121340
0.129123
-0.014157
-0.030501
-0.053406
-0.062440
-0.045910
-0.058282
-0.047174
-0.041281
-0.044229
-0.061587
-0.035093
-0.032618
-0.053017
-0.044707
-0.040613
-0.056394
-0.043793
0.013990
0.053267
0.039176
0.146689
0.150167
0.067240
-0.034690
0.104353
0.142136
-0.127789
-0.124746
0.019343
-0.033038
0.007755
-0.043738
-0.048220
-0.034088
-0.043389
-0.031510
-0.051151
-0.046472
-0.058504
-0.034406
-0.056284
0.012280
0.019085
-0.016476
-0.006122
0.042512
0.131451
0.128307
0.050448
0.086087
-0.360437
-0.070723
-0.254484
-0.141376
-0.006342
-0.120919
0.070416
-0.048271
-0.031947
0.013273
-0.063113
-0.036597
-0.026826
-0.043900
-0.034782
-0.048423
-0.060809
-0.053324
-0.066191
0.018839
0.030247
0.097631
0.063001
0.083556
0.212181
0.105442
0.201695
0.063018
-0.403315
-0.105717
-0.280760
-0.322525
-0.294864
0.056668
0.012477
0.037688
-0.170691
-0.086540
-0.022955
0.003515
-0.015614
-0.047250
-0.042857
-0.045644
-0.027871
-0.042252
-0.040318
0.011437
0.066106
0.094951
0.174303
0.168969
0.212255
0.009998
0.210672
0.258406
-0.072173
0.205968
-0.000937
-0.327783
-0.237163
0.436509
0.193081
0.019124
0.067061
-0.151069
0.027381
0.068271
0.026099
-0.050706
-0.046739
-0.051862
-0.041856
-0.041494
-0.041493
0.039588
0.067103
0.157859
0.237327
0.063686
0.128632
0.019911
0.263884
0.136214
-0.286710
-0.113010
-0.081292
-0.115402
-0.455240
-0.101197
0.031804
0.078898
-0.009394
-0.033691
-0.002094
0.097347
0.031555
-0.057839
-0.040035
-0.039603
-0.047303
-0.059014
-0.052366
0.049861
0.078287
0.094106
0.382083
0.267714
0.390793
0.013397
0.007108
-0.007495
-0.113609
-0.273413
-0.057268
-0.185835
-0.335015
-0.259013
-0.151191
0.181760
-0.043982
-0.063831
0.074267
0.036867
0.014366
-0.024660
-0.056322
-0.030128
-0.035409
-0.046297
-0.031055
0.065225
0.094138
0.119417
0.186325
0.199795
0.190004
0.040849
0.016460
-0.082069
0.092798
0.008155
0.184911
-0.188690
-0.241785
-0.368264
-0.194601
-0.165570
-0.147453
-0.287576
-0.083729
-0.214671
-0.022729
-0.034959
-0.052008
-0.028368
-0.057477
-0.050145
-0.023195
0.050132
-0.072271
0.047154
0.050829
0.077049
0.256008
-0.040765
0.029799
-0.140452
-0.062008
-0.023515
0.215722
0.190608
-0.303323
-0.305803
-0.225052
-0.220908
-0.101226
-0.256287
-0.177602
-0.111777
-0.036112
-0.052633
-0.045636
-0.049409
-0.053740
-0.041647
-0.037998
0.053948
-0.129502
-0.028475
-0.119434
0.025126
-0.097960
-0.125288
-0.221802
-0.105304
-0.025569
-0.000999
0.226088
-0.006803
-0.393533
-0.361933
-0.286378
-0.482483
-0.093846
-0.316524
-0.175488
-0.057767
-0.038741
-0.037630
-0.059868
-0.050216
-0.021461
-0.031166
-0.049080
0.005363
-0.308364
-0.189409
-0.268451
-0.083635
-0.049606
0.316373
-0.274242
0.029820
0.243916
0.351906
0.406391
0.532705
-0.035132
-0.152382
-0.228847
-0.264520
0.060971
-0.370006
-0.216774
-0.085765
-0.070128
-0.054815
-0.055540
-0.029345
-0.047497
-0.043638
-0.040749
-0.045217
-0.213712
-0.317621
0.036679
0.031502
0.148109
-0.137800
-0.260566
0.101145
0.063155
0.544886
0.504925
0.510862
0.112388
0.186719
0.249196
0.060454
-0.050210
-0.158073
-0.386564
-0.179692
-0.026588
-0.037154
-0.037931
-0.043836
-0.054509
-0.062360
-0.039558
0.044751
-0.204073
-0.285761
-0.136950
-0.076204
0.105287
-0.199911
-0.219796
-0.015378
0.141310
0.776150
0.654397
0.643929
0.112739
-0.080565
0.051711
0.027521
0.144360
-0.248539
-0.234110
-0.240612
-0.011099
-0.045622
-0.053600
-0.048748
-0.048632
-0.058157
-0.031020
0.044661
-0.212458
-0.310122
-0.376756
0.028153
-0.405133
-0.075874
-0.014355
0.142222
0.253817
0.953761
0.666962
0.323903
0.125732
0.216031
-0.001972
-0.097983
0.054932
-0.251742
-0.179355
-0.343695
0.004053
-0.038736
-0.044127
-0.079084
-0.042839
-0.056161
-0.017345
0.142084
-0.198030
-0.282256
-0.346898
-0.223651
-0.531747
-0.179693
-0.063864
0.066034
0.855318
1.017343
0.405457
0.326907
0.016797
0.114271
0.258272
0.019783
-0.109772
-0.127964
-0.205493
-0.194587
0.005295
-0.050695
-0.043074
-0.040646
-0.035743
-0.038332
0.032757
0.192271
0.002728
-0.236402
-0.359490
-0.045633
-0.329382
-0.506617
-0.364178
-0.051254
0.424632
0.438695
0.305952
0.022634
-0.207425
-0.252710
0.069840
0.078402
0.007826
-0.062451
0.124027
-0.093737
0.078095
-0.037011
-0.047782
-0.046074
-0.038202
-0.029761
0.072597
0.212310
-0.057010
-0.234858
-0.310520
-0.111138
-0.248343
-0.507807
-0.165826
-0.066759
0.546347
0.479243
0.103514
-0.044088
-0.303048
-0.282567
-0.021227
-0.017120
-0.147632
0.008725
0.241333
0.046824
-0.002854
-0.061060
-0.059353
-0.047707
-0.068075
-0.035146
0.071630
0.002590
0.098534
-0.240861
-0.137128
-0.031098
-0.073213
-0.544561
-0.236967
-0.209575
0.122815
0.263934
-0.082587
-0.046501
-0.092758
-0.017669
0.079552
0.126201
0.055690
0.058869
0.180266
0.104756
-0.029181
-0.066930
-0.053297
-0.036910
-0.053996
-0.018768
0.045820
-0.006779
0.070117
0.048482
-0.039600
0.032958
-0.091363
-0.642707
-0.332910
-0.277337
0.100214
0.144404
0.148131
0.161257
0.201963
0.301697
0.375176
0.247063
0.050610
0.147440
0.212122
0.104839
-0.059375
-0.058283
-0.036318
-0.062655
-0.059546
-0.053152
-0.004979
0.061191
-0.063247
0.056080
-0.174590
0.102164
0.071208
-0.367674
-0.387422
-0.119781
0.341112
0.285235
0.113594
0.075664
0.346712
0.283624
0.211563
0.262447
0.020419
0.107205
0.169368
0.067619
-0.033759
-0.063379
-0.044289
-0.055449
-0.040580
-0.049103
-0.016938
-0.007931
-0.203792
-0.070965
-0.044827
-0.204906
-0.291342
-0.299200
-0.363319
-0.255865
-0.384088
-0.245362
-0.232631
-0.175609
0.315153
0.281680
0.296029
-0.065505
-0.025731
0.056019
0.137698
0.070184
-0.052416
-0.047615
-0.059080
-0.046117
-0.032553
-0.040914
-0.037278
0.007890
-0.042319
-0.194861
0.081057
-0.154757
-0.257382
-0.559864
-0.401606
-0.538281
-0.534176
-0.389578
-0.102889
0.057180
0.130561
-0.026114
-0.251671
-0.212752
-0.037980
-0.039874
0.047307
0.046918
-0.041906
-0.034633
-0.034891
-0.048674
-0.034886
-0.043819
-0.047353
-0.027342
0.008186
0.038611
0.138695
0.127368
0.055016
-0.093717
-0.092325
-0.036230
0.113469
0.019040
-0.088637
-0.042838
-0.013310
-0.206157
-0.015493
-0.004305
-0.021291
-0.027779
-0.052402
-0.033397
-0.040989
-0.058059
-0.051996
-0.050557
-0.039088
-0.052547
-0.067657
-0.059542
-0.057529
-0.024456
-0.006161
0.105823
0.106778
0.235776
0.148468
0.066087
0.253449
0.142336
0.077777
0.162041
0.038330
0.029439
-0.021895
-0.032099
-0.020935
-0.040725
-0.040281
-0.048865
-0.051151
-0.058574
-0.066488
-0.064414
-0.042025
-0.051978
-0.050044
-0.048552
-0.028032
-0.027279
-0.024951
-0.031167
-0.015924
0.062211
0.075768
0.066651
0.017763
0.028087
0.001152
-0.018751
-0.012526
-0.019728
-0.018661
-0.020793
-0.030627
-0.020632
-0.051412
-0.049629
-0.055004
-0.052707
-0.049014
-0.042306
-0.036088
-0.044525
-0.033120
-0.063345
-0.050510
-0.065312
-0.035852
-0.044547
-0.041760
-0.012467
-0.050485
-0.032156
-0.029661
-0.032829
-0.042285
-0.036489
-0.048031
-0.044601
-0.035550
-0.037133
-0.052172
-0.036852
-0.029984
-0.068910
-0.053081
-0.049383
-0.033208
